Language model created by QuickLM on Mon Apr  1 10:48:41 EDT 2019
Copyright (c) 1996-2010 Carnegie Mellon University and Alexander I. Rudnicky

The model is in standard ARPA format, designed by Doug Paul while he was at MITRE.

The code that was used to produce this language model is available in Open Source.
Please visit http://www.speech.cs.cmu.edu/tools/ for more information

The (fixed) discount mass is 0.5. The backoffs are computed using the ratio method.
This model based on a corpus of 9 sentences and 11 words

\data\
ngram 1=11
ngram 2=18
ngram 3=9

\1-grams:
-0.7782 </s> -0.3010
-0.7782 <s> -0.2218
-1.7324 FOLLOW-ME -0.2218
-1.7324 STOP-FOLLOW -0.2218

\2-grams:
-1.2553 <s> FOLLOW-ME 0.0000
-1.2553 <s> STOP-FOLLOW 0.0000
-0.3010 FOLLOW-ME </s> -0.3010
-0.3010 STOP-FOLLOW </s> -0.3010

\3-grams:
-0.3010 <s> FOLLOW-ME </s>
-0.3010 <s> STOP-FOLLOW </s>

\end\
