Language model created by QuickLM on Mon Mar  9 00:18:17 EDT 2020
Copyright (c) 1996-2010 Carnegie Mellon University and Alexander I. Rudnicky

The model is in standard ARPA format, designed by Doug Paul while he was at MITRE.

The code that was used to produce this language model is available in Open Source.
Please visit http://www.speech.cs.cmu.edu/tools/ for more information

The (fixed) discount mass is 0.5. The backoffs are computed using the ratio method.
This model based on a corpus of 4 sentences and 6 words

\data\
ngram 1=6
ngram 2=8
ngram 3=4

\1-grams:
-0.7782 </s> -0.3010
-0.7782 <s> -0.2218
-1.3802 FOLLOW-ME -0.2218
-1.3802 ROBOT-NO -0.2218
-1.3802 ROBOT-YES -0.2218
-1.3802 STOP-FOLLOW -0.2218

\2-grams:
-0.9031 <s> FOLLOW-ME 0.0000
-0.9031 <s> ROBOT-NO 0.0000
-0.9031 <s> ROBOT-YES 0.0000
-0.9031 <s> STOP-FOLLOW 0.0000
-0.3010 FOLLOW-ME </s> -0.3010
-0.3010 ROBOT-NO </s> -0.3010
-0.3010 ROBOT-YES </s> -0.3010
-0.3010 STOP-FOLLOW </s> -0.3010

\3-grams:
-0.3010 <s> FOLLOW-ME </s>
-0.3010 <s> ROBOT-NO </s>
-0.3010 <s> ROBOT-YES </s>
-0.3010 <s> STOP-FOLLOW </s>

\end\
